digraph Tree {
node [shape=box, fontname="helvetica"] ;
edge [fontname="helvetica"] ;
0 [label="X[3] <= 0.5\ngini = 0.5\nsamples = 800\nvalue = [403, 397]"] ;
1 [label="gini = 0.0\nsamples = 64\nvalue = [64, 0]"] ;
0 -> 1 [labeldistance=2.5, labelangle=45, headlabel="True"] ;
2 [label="X[1] <= 3.5\ngini = 0.497\nsamples = 736\nvalue = [339, 397]"] ;
0 -> 2 [labeldistance=2.5, labelangle=-45, headlabel="False"] ;
3 [label="X[0] <= 37.5\ngini = 0.496\nsamples = 457\nvalue = [250, 207]"] ;
2 -> 3 ;
4 [label="X[3] <= 2.5\ngini = 0.493\nsamples = 315\nvalue = [139, 176]"] ;
3 -> 4 ;
5 [label="X[0] <= 34.5\ngini = 0.492\nsamples = 154\nvalue = [87, 67]"] ;
4 -> 5 ;
6 [label="gini = 0.496\nsamples = 147\nvalue = [80, 67]"] ;
5 -> 6 ;
7 [label="gini = 0.0\nsamples = 7\nvalue = [7, 0]"] ;
5 -> 7 ;
8 [label="X[6] <= 2.5\ngini = 0.437\nsamples = 161\nvalue = [52, 109]"] ;
4 -> 8 ;
9 [label="gini = 0.486\nsamples = 72\nvalue = [30, 42]"] ;
8 -> 9 ;
10 [label="gini = 0.372\nsamples = 89\nvalue = [22, 67]"] ;
8 -> 10 ;
11 [label="gini = 0.341\nsamples = 142\nvalue = [111, 31]"] ;
3 -> 11 ;
12 [label="X[3] <= 1.5\ngini = 0.434\nsamples = 279\nvalue = [89, 190]"] ;
2 -> 12 ;
13 [label="gini = 0.5\nsamples = 66\nvalue = [33, 33]"] ;
12 -> 13 ;
14 [label="X[7] <= 1.5\ngini = 0.388\nsamples = 213\nvalue = [56, 157]"] ;
12 -> 14 ;
15 [label="gini = 0.0\nsamples = 2\nvalue = [2, 0]"] ;
14 -> 15 ;
16 [label="X[0] <= 48.5\ngini = 0.381\nsamples = 211\nvalue = [54, 157]"] ;
14 -> 16 ;
17 [label="X[3] <= 3.5\ngini = 0.369\nsamples = 205\nvalue = [50, 155]"] ;
16 -> 17 ;
18 [label="gini = 0.416\nsamples = 122\nvalue = [36, 86]"] ;
17 -> 18 ;
19 [label="gini = 0.28\nsamples = 83\nvalue = [14, 69]"] ;
17 -> 19 ;
20 [label="gini = 0.444\nsamples = 6\nvalue = [4, 2]"] ;
16 -> 20 ;
}