digraph Tree {
node [shape=box, fontname="helvetica"] ;
edge [fontname="helvetica"] ;
0 [label="X[3] <= 0.5\ngini = 0.644\nsamples = 1177\nvalue = [505, 258, 414]"] ;
1 [label="gini = 0.051\nsamples = 77\nvalue = [75, 0, 2]"] ;
0 -> 1 [labeldistance=2.5, labelangle=45, headlabel="True"] ;
2 [label="X[0] <= 37.5\ngini = 0.652\nsamples = 1100\nvalue = [430, 258, 412]"] ;
0 -> 2 [labeldistance=2.5, labelangle=-45, headlabel="False"] ;
3 [label="X[1] <= 3.5\ngini = 0.638\nsamples = 773\nvalue = [248, 170, 355]"] ;
2 -> 3 ;
4 [label="X[3] <= 2.5\ngini = 0.607\nsamples = 488\nvalue = [180, 71, 237]"] ;
3 -> 4 ;
5 [label="X[0] <= 30.5\ngini = 0.597\nsamples = 211\nvalue = [104, 27, 80]"] ;
4 -> 5 ;
6 [label="X[2] <= 1.5\ngini = 0.603\nsamples = 181\nvalue = [80, 23, 78]"] ;
5 -> 6 ;
7 [label="gini = 0.0\nsamples = 4\nvalue = [0, 4, 0]"] ;
6 -> 7 ;
8 [label="X[0] <= 23.5\ngini = 0.59\nsamples = 177\nvalue = [80, 19, 78]"] ;
6 -> 8 ;
9 [label="gini = 0.538\nsamples = 77\nvalue = [31, 4, 42]"] ;
8 -> 9 ;
10 [label="gini = 0.608\nsamples = 100\nvalue = [49, 15, 36]"] ;
8 -> 10 ;
11 [label="gini = 0.338\nsamples = 30\nvalue = [24, 4, 2]"] ;
5 -> 11 ;
12 [label="X[7] <= 2.5\ngini = 0.578\nsamples = 277\nvalue = [76, 44, 157]"] ;
4 -> 12 ;
13 [label="gini = 0.598\nsamples = 96\nvalue = [38, 12, 46]"] ;
12 -> 13 ;
14 [label="X[4] <= 0.5\ngini = 0.549\nsamples = 181\nvalue = [38, 32, 111]"] ;
12 -> 14 ;
15 [label="gini = 0.658\nsamples = 15\nvalue = [5, 6, 4]"] ;
14 -> 15 ;
16 [label="X[6] <= 1.5\ngini = 0.52\nsamples = 166\nvalue = [33, 26, 107]"] ;
14 -> 16 ;
17 [label="gini = 0.647\nsamples = 27\nvalue = [6, 10, 11]"] ;
16 -> 17 ;
18 [label="gini = 0.472\nsamples = 139\nvalue = [27, 16, 96]"] ;
16 -> 18 ;
19 [label="X[0] <= 28.5\ngini = 0.651\nsamples = 285\nvalue = [68, 99, 118]"] ;
3 -> 19 ;
20 [label="gini = 0.635\nsamples = 132\nvalue = [33, 36, 63]"] ;
19 -> 20 ;
21 [label="X[3] <= 2.5\ngini = 0.649\nsamples = 153\nvalue = [35, 63, 55]"] ;
19 -> 21 ;
22 [label="gini = 0.656\nsamples = 54\nvalue = [22, 14, 18]"] ;
21 -> 22 ;
23 [label="gini = 0.598\nsamples = 99\nvalue = [13, 49, 37]"] ;
21 -> 23 ;
24 [label="X[1] <= 3.5\ngini = 0.587\nsamples = 327\nvalue = [182, 88, 57]"] ;
2 -> 24 ;
25 [label="X[2] <= 2.5\ngini = 0.435\nsamples = 190\nvalue = [138, 28, 24]"] ;
24 -> 25 ;
26 [label="gini = 0.19\nsamples = 68\nvalue = [61, 3, 4]"] ;
25 -> 26 ;
27 [label="gini = 0.533\nsamples = 122\nvalue = [77, 25, 20]"] ;
25 -> 27 ;
28 [label="gini = 0.647\nsamples = 137\nvalue = [44, 60, 33]"] ;
24 -> 28 ;
}