digraph Tree {
node [shape=box, fontname="helvetica"] ;
edge [fontname="helvetica"] ;
0 [label="X[3] <= 0.5\ngini = 0.492\nsamples = 911\nvalue = [512, 399]"] ;
1 [label="gini = 0.049\nsamples = 79\nvalue = [77, 2]"] ;
0 -> 1 [labeldistance=2.5, labelangle=45, headlabel="True"] ;
2 [label="X[0] <= 37.5\ngini = 0.499\nsamples = 832\nvalue = [435, 397]"] ;
0 -> 2 [labeldistance=2.5, labelangle=-45, headlabel="False"] ;
3 [label="X[3] <= 2.5\ngini = 0.49\nsamples = 598\nvalue = [257, 341]"] ;
2 -> 3 ;
4 [label="X[0] <= 30.5\ngini = 0.499\nsamples = 308\nvalue = [160, 148]"] ;
3 -> 4 ;
5 [label="X[1] <= 2.5\ngini = 0.499\nsamples = 256\nvalue = [122, 134]"] ;
4 -> 5 ;
6 [label="gini = 0.466\nsamples = 81\nvalue = [51, 30]"] ;
5 -> 6 ;
7 [label="X[0] <= 22.5\ngini = 0.482\nsamples = 175\nvalue = [71, 104]"] ;
5 -> 7 ;
8 [label="gini = 0.448\nsamples = 59\nvalue = [20, 39]"] ;
7 -> 8 ;
9 [label="gini = 0.493\nsamples = 116\nvalue = [51, 65]"] ;
7 -> 9 ;
10 [label="gini = 0.393\nsamples = 52\nvalue = [38, 14]"] ;
4 -> 10 ;
11 [label="X[2] <= 1.5\ngini = 0.445\nsamples = 290\nvalue = [97, 193]"] ;
3 -> 11 ;
12 [label="gini = 0.42\nsamples = 10\nvalue = [7, 3]"] ;
11 -> 12 ;
13 [label="X[0] <= 21.5\ngini = 0.436\nsamples = 280\nvalue = [90, 190]"] ;
11 -> 13 ;
14 [label="gini = 0.32\nsamples = 5\nvalue = [4, 1]"] ;
13 -> 14 ;
15 [label="X[5] <= 0.5\ngini = 0.43\nsamples = 275\nvalue = [86, 189]"] ;
13 -> 15 ;
16 [label="gini = 0.49\nsamples = 72\nvalue = [31, 41]"] ;
15 -> 16 ;
17 [label="X[6] <= 1.5\ngini = 0.395\nsamples = 203\nvalue = [55, 148]"] ;
15 -> 17 ;
18 [label="gini = 0.487\nsamples = 43\nvalue = [18, 25]"] ;
17 -> 18 ;
19 [label="X[3] <= 3.5\ngini = 0.356\nsamples = 160\nvalue = [37, 123]"] ;
17 -> 19 ;
20 [label="gini = 0.228\nsamples = 61\nvalue = [8, 53]"] ;
19 -> 20 ;
21 [label="gini = 0.414\nsamples = 99\nvalue = [29, 70]"] ;
19 -> 21 ;
22 [label="X[1] <= 3.5\ngini = 0.364\nsamples = 234\nvalue = [178, 56]"] ;
2 -> 22 ;
23 [label="X[7] <= 3.5\ngini = 0.261\nsamples = 162\nvalue = [137, 25]"] ;
22 -> 23 ;
24 [label="gini = 0.142\nsamples = 104\nvalue = [96, 8]"] ;
23 -> 24 ;
25 [label="gini = 0.414\nsamples = 58\nvalue = [41, 17]"] ;
23 -> 25 ;
26 [label="gini = 0.49\nsamples = 72\nvalue = [41, 31]"] ;
22 -> 26 ;
}